<?xml version="1.0"?>
<opencv_storage>
<stage5>
  <maxWeakCount>10</maxWeakCount>
  <stageThreshold>-2.6725635528564453e+00</stageThreshold>
  <weakClassifiers>
    <_>
      <internalNodes>
        0 -1 200896 -8.0967396497726440e-02</internalNodes>
      <leafValues>
        7.1428573131561279e-01 -9.4541913270950317e-01</leafValues></_>
    <_>
      <internalNodes>
        0 -1 92513 -2.5716356933116913e-02</internalNodes>
      <leafValues>
        6.2953150272369385e-01 -7.8156787157058716e-01</leafValues></_>
    <_>
      <internalNodes>
        0 -1 420077 -3.5824994556605816e-03</internalNodes>
      <leafValues>
        4.1946342587471008e-01 -6.9719815254211426e-01</leafValues></_>
    <_>
      <internalNodes>
        0 -1 374092 -1.2075585254933685e-04</internalNodes>
      <leafValues>
        4.0079882740974426e-01 -5.3149080276489258e-01</leafValues></_>
    <_>
      <internalNodes>
        0 -1 1503 6.4308255910873413e-02</internalNodes>
      <leafValues>
        2.4554000794887543e-01 -9.0125685930252075e-01</leafValues></_>
    <_>
      <internalNodes>
        0 -1 27395 -8.6787352338433266e-03</internalNodes>
      <leafValues>
        -7.7788168191909790e-01 2.7309641242027283e-01</leafValues></_>
    <_>
      <internalNodes>
        0 -1 253545 8.5039129771757871e-05</internalNodes>
      <leafValues>
        -4.4512683153152466e-01 5.1822352409362793e-01</leafValues></_>
    <_>
      <internalNodes>
        0 -1 33169 1.2955849524587393e-04</internalNodes>
      <leafValues>
        2.1472278237342834e-01 -9.2259109020233154e-01</leafValues></_>
    <_>
      <internalNodes>
        0 -1 419402 -4.5649651437997818e-03</internalNodes>
      <leafValues>
        6.1144709587097168e-01 -2.7675950527191162e-01</leafValues></_>
    <_>
      <internalNodes>
        0 -1 9129 -3.5326532088220119e-04</internalNodes>
      <leafValues>
        -6.5150874853134155e-01 2.7163940668106079e-01</leafValues></_></weakClassifiers></stage5>
</opencv_storage>
