<?xml version="1.0"?>
<opencv_storage>
<stage2>
  <maxWeakCount>5</maxWeakCount>
  <stageThreshold>-1.8306404352188110e+00</stageThreshold>
  <weakClassifiers>
    <_>
      <internalNodes>
        0 -1 69151 -6.5633982419967651e-02</internalNodes>
      <leafValues>
        2.6315790414810181e-01 -9.4515180587768555e-01</leafValues></_>
    <_>
      <internalNodes>
        0 -1 382005 -2.0248122513294220e-02</internalNodes>
      <leafValues>
        1.1030475050210953e-01 -7.8394728899002075e-01</leafValues></_>
    <_>
      <internalNodes>
        0 -1 402130 -3.0095463152974844e-03</internalNodes>
      <leafValues>
        5.4499775171279907e-01 -4.8164564371109009e-01</leafValues></_>
    <_>
      <internalNodes>
        0 -1 459552 -1.2395989324431866e-04</internalNodes>
      <leafValues>
        -1. 2.1819786727428436e-01</leafValues></_>
    <_>
      <internalNodes>
        0 -1 28194 1.7843252862803638e-05</internalNodes>
      <leafValues>
        2.1709333360195160e-01 -8.6473697423934937e-01</leafValues></_></weakClassifiers></stage2>
</opencv_storage>
